%YAML:1.0
---
opencv_ml_svm:
   format: 3
   svmType: C_SVC
   kernel:
      type: RBF
      gamma: 1.0000000000000001e-01
   C: 2.
   term_criteria: { epsilon:1. }
   var_count: 1
   class_count: 2
   class_labels: !!opencv-matrix
      rows: 2
      cols: 1
      dt: i
      data: [ -1082130432, 1065353216 ]
   sv_total: 398
   support_vectors:
      - [ 939. ]
      - [ 864. ]
      - [ 859. ]
      - [ 876. ]
      - [ 855. ]
      - [ 2064. ]
      - [ 823. ]
      - [ 736. ]
      - [ 916. ]
      - [ 1945. ]
      - [ 654. ]
      - [ 713. ]
      - [ 5802. ]
      - [ 763. ]
      - [ 6346. ]
      - [ 6045. ]
      - [ 4443. ]
      - [ 6650. ]
      - [ 3395. ]
      - [ 5907. ]
      - [ 6718. ]
      - [ 6407. ]
      - [ 6434. ]
      - [ 5720. ]
      - [ 6611. ]
      - [ 1369. ]
      - [ 968. ]
      - [ 5070. ]
      - [ 988. ]
      - [ 3633. ]
      - [ 1059. ]
      - [ 6544. ]
      - [ 2108. ]
      - [ 5851. ]
      - [ 5359. ]
      - [ 5528. ]
      - [ 1778. ]
      - [ 6517. ]
      - [ 4893. ]
      - [ 3174. ]
      - [ 1903. ]
      - [ 1845. ]
      - [ 6458. ]
      - [ 3442. ]
      - [ 4388. ]
      - [ 1704. ]
      - [ 4209. ]
      - [ 4305. ]
      - [ 3523. ]
      - [ 1968. ]
      - [ 1798. ]
      - [ 2854. ]
      - [ 6691. ]
      - [ 2128. ]
      - [ 3925. ]
      - [ 2734. ]
      - [ 1322. ]
      - [ 1158. ]
      - [ 5005. ]
      - [ 4957. ]
      - [ 6244. ]
      - [ 2156. ]
      - [ 1637. ]
      - [ 3253. ]
      - [ 1287. ]
      - [ 1130. ]
      - [ 3003. ]
      - [ 5188. ]
      - [ 6312. ]
      - [ 3673. ]
      - [ 4602. ]
      - [ 2227. ]
      - [ 2044. ]
      - [ 1389. ]
      - [ 1110. ]
      - [ 2903. ]
      - [ 6218. ]
      - [ 4840. ]
      - [ 1251. ]
      - [ 1457. ]
      - [ 5494. ]
      - [ 6287. ]
      - [ 4019. ]
      - [ 2349. ]
      - [ 3276. ]
      - [ 1732. ]
      - [ 3227. ]
      - [ 2585. ]
      - [ 5337. ]
      - [ 4338. ]
      - [ 5782. ]
      - [ 5459. ]
      - [ 2479. ]
      - [ 3951. ]
      - [ 2177. ]
      - [ 4689. ]
      - [ 5929. ]
      - [ 4152. ]
      - [ 2427. ]
      - [ 1992. ]
      - [ 4668. ]
      - [ 2881. ]
      - [ 3837. ]
      - [ 5165. ]
      - [ 5823. ]
      - [ 7333. ]
      - [ 3305. ]
      - [ 6590. ]
      - [ 5134. ]
      - [ 4569. ]
      - [ 1080. ]
      - [ 2830. ]
      - [ 3896. ]
      - [ 2712. ]
      - [ 1873. ]
      - [ 1522. ]
      - [ 6182. ]
      - [ 2281. ]
      - [ 4100. ]
      - [ 4794. ]
      - [ 4982. ]
      - [ 3544. ]
      - [ 5758. ]
      - [ 6972. ]
      - [ 4469. ]
      - [ 7448. ]
      - [ 5949. ]
      - [ 4363. ]
      - [ 5419. ]
      - [ 6002. ]
      - [ 5050. ]
      - [ 4509. ]
      - [ 3502. ]
      - [ 3740. ]
      - [ 2802. ]
      - [ 4819. ]
      - [ 2019. ]
      - [ 3999. ]
      - [ 1925. ]
      - [ 1753. ]
      - [ 4187. ]
      - [ 2387. ]
      - [ 1414. ]
      - [ 1486. ]
      - [ 2086. ]
      - [ 2776. ]
      - [ 2681. ]
      - [ 5281. ]
      - [ 4048. ]
      - [ 4234. ]
      - [ 5249. ]
      - [ 4542. ]
      - [ 3078. ]
      - [ 5025. ]
      - [ 5665. ]
      - [ 4279. ]
      - [ 5625. ]
      - [ 5596. ]
      - [ 3698. ]
      - [ 5876. ]
      - [ 2533. ]
      - [ 3972. ]
      - [ 3464. ]
      - [ 2980. ]
      - [ 3859. ]
      - [ 3344. ]
      - [ 2618. ]
      - [ 3799. ]
      - [ 1188. ]
      - [ 2642. ]
      - [ 3109. ]
      - [ 4128. ]
      - [ 1821. ]
      - [ 3778. ]
      - [ 3415. ]
      - [ 4421. ]
      - [ 2508. ]
      - [ 1589. ]
      - [ 1674. ]
      - [ 2204. ]
      - [ 5223. ]
      - [ 5104. ]
      - [ 3153. ]
      - [ 4759. ]
      - [ 4073. ]
      - [ 2302. ]
      - [ 2324. ]
      - [ 3029. ]
      - [ 4736. ]
      - [ 4256. ]
      - [ 5687. ]
      - [ 5391. ]
      - [ 4631. ]
      - [ 3575. ]
      - [ 5311. ]
      - [ 5565. ]
      - [ 3653. ]
      - [ 6024. ]
      - [ 2449. ]
      - [ 3131. ]
      - [ 4709. ]
      - [ 4865. ]
      - [ 4930. ]
      - [ 2563. ]
      - [ 3613. ]
      - [ 3206. ]
      - [ 2260. ]
      - [ 2923. ]
      - [ 2953. ]
      - [ 1022. ]
      - [ 3050. ]
      - [ 2756. ]
      - [ 3374. ]
      - [ 830. ]
      - [ 696. ]
      - [ 340. ]
      - [ 541. ]
      - [ 241. ]
      - [ 654. ]
      - [ 670. ]
      - [ 702. ]
      - [ 622. ]
      - [ 472. ]
      - [ 273. ]
      - [ 244. ]
      - [ 504. ]
      - [ 629. ]
      - [ 658. ]
      - [ 564. ]
      - [ 223. ]
      - [ 637. ]
      - [ 609. ]
      - [ 499. ]
      - [ 293. ]
      - [ 325. ]
      - [ 680. ]
      - [ 420. ]
      - [ 664. ]
      - [ 493. ]
      - [ 248. ]
      - [ 495. ]
      - [ 236. ]
      - [ 589. ]
      - [ 167. ]
      - [ 260. ]
      - [ 482. ]
      - [ 647. ]
      - [ 675. ]
      - [ 450. ]
      - [ 449. ]
      - [ 265. ]
      - [ 602. ]
      - [ 645. ]
      - [ 285. ]
      - [ 640. ]
      - [ 631. ]
      - [ 233. ]
      - [ 619. ]
      - [ 547. ]
      - [ 382. ]
      - [ 597. ]
      - [ 515. ]
      - [ 312. ]
      - [ 841. ]
      - [ 943. ]
      - [ 320. ]
      - [ 673. ]
      - [ 548. ]
      - [ 416. ]
      - [ 424. ]
      - [ 393. ]
      - [ 509. ]
      - [ 170. ]
      - [ 156. ]
      - [ 513. ]
      - [ 520. ]
      - [ 363. ]
      - [ 576. ]
      - [ 142. ]
      - [ 486. ]
      - [ 368. ]
      - [ 83. ]
      - [ 395. ]
      - [ 535. ]
      - [ 97. ]
      - [ 573. ]
      - [ 407. ]
      - [ 538. ]
      - [ 478. ]
      - [ 568. ]
      - [ 461. ]
      - [ 205. ]
      - [ 399. ]
      - [ 229. ]
      - [ 90. ]
      - [ 403. ]
      - [ 358. ]
      - [ 135. ]
      - [ 343. ]
      - [ 159. ]
      - [ 561. ]
      - [ 132. ]
      - [ 202. ]
      - [ 86. ]
      - [ 552. ]
      - [ 433. ]
      - [ 314. ]
      - [ 386. ]
      - [ 531. ]
      - [ 346. ]
      - [ 212. ]
      - [ 334. ]
      - [ 120. ]
      - [ 184. ]
      - [ 308. ]
      - [ 330. ]
      - [ 437. ]
      - [ 276. ]
      - [ 268. ]
      - [ 304. ]
      - [ 338. ]
      - [ 428. ]
      - [ 101. ]
      - [ 69. ]
      - [ 441. ]
      - [ 279. ]
      - [ 373. ]
      - [ 146. ]
      - [ 62. ]
      - [ 193. ]
      - [ 9. ]
      - [ 209. ]
      - [ 412. ]
      - [ 58. ]
      - [ 187. ]
      - [ 604. ]
      - [ 349. ]
      - [ 40. ]
      - [ 66. ]
      - [ 93. ]
      - [ 32. ]
      - [ 868. ]
      - [ 389. ]
      - [ 190. ]
      - [ 856. ]
      - [ 316. ]
      - [ 262. ]
      - [ 556. ]
      - [ 289. ]
      - [ 23. ]
      - [ 15. ]
      - [ 667. ]
      - [ 139. ]
      - [ 613. ]
      - [ 252. ]
      - [ 178. ]
      - [ 128. ]
      - [ 525. ]
      - [ 467. ]
      - [ 29. ]
      - [ 378. ]
      - [ 149. ]
      - [ 458. ]
      - [ 80. ]
      - [ 55. ]
      - [ 0. ]
      - [ 694. ]
      - [ 43. ]
      - [ 26. ]
      - [ 455. ]
      - [ 585. ]
      - [ 219. ]
      - [ 226. ]
      - [ 115. ]
      - [ 164. ]
      - [ 529. ]
      - [ 51. ]
      - [ 73. ]
      - [ 299. ]
      - [ 181. ]
      - [ 444. ]
      - [ 353. ]
      - [ 76. ]
      - [ 593. ]
      - [ 110. ]
      - [ 153. ]
      - [ 105. ]
      - [ 256. ]
      - [ 216. ]
      - [ 37. ]
      - [ 12. ]
      - [ 125. ]
      - [ 20. ]
      - [ 175. ]
      - [ 198. ]
      - [ 6. ]
      - [ 3. ]
      - [ 48. ]
   decision_functions:
      -
         sv_count: 398
         rho: 2.8619764090458799e-01
         alpha: [ 1., 1., 1., 5.7978003643955056e-01, 1., 1.,
             9.4529279388493925e-01, 1., 5.9804645209467477e-01,
             9.9999444048853547e-01, 6.9725523005861145e-01, 1., 1., 1.,
             9.1791683453082640e-01, 1., 1., 8.5801901988986029e-01, 1.,
             9.7267631894449758e-01, 1., 6.9130330793170591e-01,
             6.9313443603077041e-01, 1., 9.9999444048853547e-01,
             9.9995460006539361e-01, 1., 9.9255341452590939e-01,
             9.9916894280184454e-01, 9.9999694154897156e-01, 1.,
             9.4529280725238907e-01, 1., 7.9656754744238256e-01,
             9.9255341605634284e-01, 6.9725522974934429e-01,
             5.9869021238228604e-01, 6.9723652884174347e-01, 1.,
             5.9532895319469870e-01, 1., 8.5797204283432627e-01,
             6.9315717564266177e-01, 5.9804588831396310e-01,
             7.9853834746134011e-01, 1., 9.9999999692512143e-01, 1.,
             9.9999694154897156e-01, 6.0357723928266505e-01,
             9.9995460006539361e-01, 1.0000000228767050e+00,
             9.7267631741420035e-01, 5.7207858476911377e-01, 2.,
             6.0357303670701024e-01, 7.8026073934336648e-01,
             1.6085727554134928e+00, 9.4529586378313313e-01,
             6.9554049997599721e-01, 6.9667596370948914e-01,
             6.0293457447270682e-01, 9.9969646095996700e-01,
             9.9984545072425135e-01, 9.9999694154897156e-01,
             6.9725522966767062e-01, 1., 6.9130167467125736e-01,
             9.7267631894463813e-01, 9.4529512969466511e-01,
             9.9999999692512143e-01, 9.9255341758233340e-01,
             9.1789599776650876e-01, 1., 6.9465959797403065e-01,
             9.9255341758233762e-01, 7.9842111385044590e-01,
             9.9999999999237810e-01, 5.4199337272119763e-01,
             8.5800004576315403e-01, 9.9999694154897156e-01,
             6.0358636727351844e-01, 9.9612493926528467e-01,
             9.9995460006539361e-01, 9.9984795178468733e-01,
             5.8227386114926938e-01, 9.1789574400124985e-01,
             8.8525514937776106e-01, 9.9999999692512143e-01,
             6.2076740820712484e-01, 5.5267342796539776e-01,
             9.9901745197697989e-01, 9.7267835433388550e-01,
             8.5839761583394947e-01, 7.9856014634987671e-01,
             6.8513970183438144e-01, 6.9711452003831997e-01,
             9.9255341605620651e-01, 7.5255591820316559e-01,
             9.4529584107692199e-01, 7.8290360092058220e-01,
             6.9725522967001596e-01, 9.9999999999999578e-01,
             9.9901745197712466e-01, 9.9999999837796583e-01,
             6.8390693317803308e-01, 7.9748972453100819e-01,
             9.9255341758233340e-01, 9.7267631894449758e-01,
             8.5810814561507298e-01, 9.9908257609773554e-01,
             5.9881051221702797e-01, 8.5810812277460147e-01,
             9.9999999999985945e-01, 9.9544593028862038e-01,
             9.7267625811219205e-01, 9.9999999999971889e-01,
             9.9255341452049994e-01, 9.9995460006539361e-01,
             1.1009482592344284e+00, 6.9130122040297093e-01,
             7.9585033228920743e-01, 9.1791685576637683e-01,
             9.9984545072425135e-01, 5.7836199039073199e-01,
             6.0109986793867654e-01, 9.4529038006970678e-01, 1.,
             5.7143423550541605e-01, 7.9747755462527481e-01,
             7.9814067661094268e-01, 9.9544593129775127e-01,
             9.8261484737208571e-01, 1., 1.6111388102768898e+00,
             1.2024186695745114e+00, 5.1377017035519323e-01,
             9.4530197715867759e-01, 8.9532874651548133e-01,
             7.9806333499460069e-01, 5.0296197307809110e-01,
             7.8379887283328631e-01, 9.9544593019851624e-01,
             6.5093463620078640e-01, 7.5597370682578358e-01,
             8.8465863071939643e-01, 1.0008306073359106e+00,
             6.2479598101213241e-01, 5.9804665589311323e-01,
             9.4529512869929899e-01, 5.1702104840966023e-01,
             6.2879127570997007e-01, 6.6172138513415257e-01,
             7.8798135396142044e-01, 5.4700965653494926e-01,
             6.0293699323403005e-01, 7.9744355534463152e-01,
             7.5657546309063339e-01, 5.6954021566304569e-01,
             9.9544593028321526e-01, 9.8223929797860243e-01,
             7.8290625150474757e-01, 9.9833844299414753e-01,
             9.9999997558585574e-01, 9.1791415349497751e-01,
             8.8539446076824047e-01, 9.9997727484662824e-01,
             8.5801530856939956e-01, 9.9833775294356897e-01,
             6.9389715282532272e-01, 9.9901745195811897e-01,
             9.9984820758427706e-01, 9.9999999999237499e-01,
             9.1791056866044418e-01, 1.0650447175349154e+00,
             6.5118937396259624e-01, 9.9999972122010894e-01,
             9.9999999983081023e-01, 2., 5.6043837495111504e-01,
             9.9917200125287309e-01, 9.9612493918099798e-01,
             9.4530546383367986e-01, 9.4529305733078406e-01,
             6.9493163544020065e-01, -5.0000000000000000e-01,
             -5.0000000000000000e-01, -5.0000000000000000e-01,
             -5.0000000000000000e-01, -5.0000000000000000e-01,
             -5.0000000000000000e-01, -5.0000000000000000e-01,
             -5.0000000000000000e-01, -5.0000000000000000e-01,
             -5.0000000000000000e-01, -5.0000000000000000e-01,
             -5.0000000000000000e-01, -5.0000000000000000e-01,
             -5.0000000000000000e-01, -5.0000000000000000e-01,
             -5.0000000000000000e-01, -5.0000000000000000e-01,
             -5.0000000000000000e-01, -5.0000000000000000e-01,
             -5.0000000000000000e-01, -7.4999999428082376e-01,
             -5.0000000000000000e-01, -5.0000000000000000e-01,
             -5.0000000000000000e-01, -5.0000000000000000e-01,
             -5.0000000000000000e-01, -9.9999999999999578e-01,
             -9.9999999999985945e-01, -9.9999999999971889e-01,
             -9.9999999999237810e-01, -9.9999999999237499e-01,
             -9.9999999983081023e-01, -9.9999999837796583e-01,
             -9.9999999692512143e-01, -9.9999999692512143e-01,
             -9.9999999692512143e-01, -9.9999997558585574e-01,
             -9.9999972122010894e-01, -9.9999694154897156e-01,
             -9.9999694154897156e-01, -9.9999694154897156e-01,
             -9.9999694154897156e-01, -9.9999444048853547e-01,
             -9.9999444048853547e-01, -9.9997727484662824e-01,
             -9.9995460006539361e-01, -9.9995460006539361e-01,
             -9.9995460006539361e-01, -9.9995460006539361e-01,
             -9.9984820758427706e-01, -9.9984795178468733e-01,
             -9.9984545072425135e-01, -9.9984545072425135e-01,
             -9.9969646095996700e-01, -9.9917200125287309e-01,
             -9.9916894280184454e-01, -9.9908257609773554e-01,
             -9.9901745197712466e-01, -9.9901745197697989e-01,
             -9.9901745195811897e-01, -9.9833844299414753e-01,
             -9.9833775294356897e-01, -9.9612493926528467e-01,
             -9.9612493918099798e-01, -9.9544593129775127e-01,
             -9.9544593028862038e-01, -9.9544593028321526e-01,
             -9.9544593019851624e-01, -9.9255341758233762e-01,
             -9.9255341758233340e-01, -9.9255341758233340e-01,
             -9.9255341605634284e-01, -9.9255341605620651e-01,
             -9.9255341452590939e-01, -9.9255341452049994e-01,
             -9.8261484737208571e-01, -9.8223929797860243e-01,
             -9.7267835433388550e-01, -9.7267631894463813e-01,
             -9.7267631894449758e-01, -9.7267631894449758e-01,
             -9.7267631741420035e-01, -9.7267625811219205e-01,
             -9.4530546383367986e-01, -9.4530197715867759e-01,
             -9.4529586378313313e-01, -9.4529584107692199e-01,
             -9.4529512969466511e-01, -9.4529512869929899e-01,
             -9.4529305733078406e-01, -9.4529280725238907e-01,
             -9.4529279388493925e-01, -9.4529038006970678e-01,
             -9.1791685576637683e-01, -9.1791683453082640e-01,
             -9.1791415349497751e-01, -9.1791056866044418e-01,
             -9.1789599776650876e-01, -9.1789574400124985e-01,
             -8.9532874651548133e-01, -8.8539446076824047e-01,
             -8.8525514937776106e-01, -8.8465863071939643e-01,
             -8.5839761583394947e-01, -8.5810814561507298e-01,
             -8.5810812277460147e-01, -8.5801901988986029e-01,
             -8.5801530856939956e-01, -8.5800004576315403e-01,
             -8.5797204283432627e-01, -7.9856014634987671e-01,
             -7.9853834746134011e-01, -7.9842111385044590e-01,
             -7.9814067661094268e-01, -7.9806333499460069e-01,
             -7.9748972453100819e-01, -7.9747755462527481e-01,
             -7.9744355534463152e-01, -7.9656754744238256e-01,
             -7.9585033228920743e-01, -7.8798135396142044e-01,
             -7.8379887283328631e-01, -7.8290625150474757e-01,
             -7.8290360092058220e-01, -7.8026073934336648e-01,
             -7.5657546309063339e-01, -7.5597370682578358e-01,
             -7.5255591820316559e-01, -7.4999999428082376e-01,
             -6.9725523005861145e-01, -6.9725522974934429e-01,
             -6.9725522967001596e-01, -6.9725522966767062e-01,
             -6.9723652884174347e-01, -6.9711452003831997e-01,
             -6.9667596370948914e-01, -6.9554049997599721e-01,
             -6.9493163544020065e-01, -6.9465959797403065e-01,
             -6.9389715282532272e-01, -6.9315717564266177e-01,
             -6.9313443603077041e-01, -6.9130330793170591e-01,
             -6.9130167467125736e-01, -6.9130122040297093e-01,
             -6.8513970183438144e-01, -6.8390693317803308e-01,
             -6.6172138513415257e-01, -6.5118937396259624e-01,
             -6.5093463620078640e-01, -6.2879127570997007e-01,
             -6.2479598101213241e-01, -6.2076740820712484e-01,
             -6.1113881027688977e-01, -6.0842150433486175e-01,
             -6.0358636727351844e-01, -6.0357723928266505e-01,
             -6.0357303670701024e-01, -6.0293699323403005e-01,
             -6.0293457447270682e-01, -6.0109986793867654e-01,
             -5.9881051221702797e-01, -5.9869021238228604e-01,
             -5.9804665589311323e-01, -5.9804645209467477e-01,
             -5.9804588831396310e-01, -5.9532895319469870e-01,
             -5.8227386114926938e-01, -5.7978003643955056e-01,
             -5.7836199039073199e-01, -5.7207858476911377e-01,
             -5.7143423550541605e-01, -5.6954021566304569e-01,
             -5.6043837495111504e-01, -5.5267342796539776e-01,
             -5.4700965653494926e-01, -5.4199337272119763e-01,
             -5.1702104840966023e-01, -5.1377017035519323e-01,
             -5.0296197307809110e-01, -5.0000000000000000e-01,
             -5.0000000000000000e-01, -5.0000000000000000e-01,
             -5.0000000000000000e-01, -5.0000000000000000e-01,
             -5.0000000000000000e-01, -5.0000000000000000e-01,
             -5.0000000000000000e-01, -5.0000000000000000e-01,
             -5.0000000000000000e-01, -5.0000000000000000e-01,
             -5.0000000000000000e-01, -5.0000000000000000e-01,
             -5.0000000000000000e-01, -5.0000000000000000e-01,
             -5.0000000000000000e-01, -5.0000000000000000e-01,
             -5.0000000000000000e-01, -5.0000000000000000e-01,
             -5.0000000000000000e-01, -5.0000000000000000e-01, -1., -2.,
             -5.0000000000000000e-01, -5.0000000000000000e-01,
             -5.0000000000000000e-01, -1.0001512510786310e+00,
             -5.0000000000000000e-01, -1.7024186810128639e+00,
             -1.0008306073359106e+00, -1.0000000228767050e+00,
             -1.0650447175349154e+00, -1.1009482592344284e+00 ]
         index: [ 215, 397, 396, 395, 394, 393, 392, 391, 390, 389, 388,
             387, 386, 385, 384, 383, 382, 381, 380, 379, 378, 377, 376,
             375, 374, 373, 372, 371, 370, 369, 368, 367, 366, 365, 364,
             363, 362, 361, 360, 359, 358, 357, 356, 355, 354, 353, 352,
             351, 350, 349, 348, 347, 346, 345, 344, 343, 342, 341, 340,
             339, 338, 337, 336, 335, 334, 333, 332, 331, 330, 329, 328,
             327, 326, 325, 324, 323, 322, 321, 320, 319, 318, 317, 316,
             315, 314, 313, 312, 311, 310, 309, 308, 307, 306, 305, 304,
             303, 302, 301, 300, 299, 298, 297, 296, 295, 294, 293, 292,
             291, 290, 289, 288, 287, 286, 285, 284, 283, 282, 281, 280,
             279, 278, 277, 276, 275, 274, 273, 272, 271, 270, 269, 268,
             267, 266, 265, 264, 263, 262, 261, 260, 259, 258, 257, 256,
             255, 254, 253, 252, 251, 250, 249, 248, 247, 246, 245, 244,
             243, 242, 241, 240, 239, 238, 237, 236, 235, 234, 233, 232,
             231, 230, 229, 228, 227, 226, 225, 213, 214, 216, 217, 218,
             219, 220, 221, 222, 223, 224, 212, 211, 210, 209, 208, 207,
             206, 205, 204, 203, 202, 201, 200, 199, 198, 197, 196, 195,
             194, 193, 192, 191, 190, 189, 188, 187, 186, 185, 184, 183,
             182, 181, 180, 179, 178, 177, 176, 175, 174, 173, 172, 171,
             170, 169, 168, 167, 166, 165, 164, 163, 162, 161, 160, 159,
             158, 157, 156, 155, 154, 153, 152, 151, 150, 149, 148, 147,
             146, 145, 144, 143, 142, 141, 140, 139, 138, 137, 136, 135,
             134, 133, 132, 131, 130, 129, 128, 127, 126, 125, 124, 123,
             122, 121, 120, 119, 118, 117, 116, 115, 114, 113, 112, 111,
             110, 109, 108, 107, 106, 105, 104, 103, 102, 101, 100, 99,
             98, 97, 96, 95, 94, 93, 92, 91, 90, 89, 88, 87, 86, 85, 84,
             83, 82, 81, 80, 79, 78, 77, 76, 75, 74, 73, 72, 71, 70, 69,
             68, 67, 66, 65, 64, 63, 62, 61, 60, 59, 58, 57, 56, 55, 54,
             53, 52, 51, 50, 49, 48, 47, 46, 45, 44, 43, 42, 41, 40, 39,
             38, 37, 36, 35, 34, 33, 32, 31, 30, 29, 28, 27, 26, 25, 24,
             23, 22, 21, 20, 19, 18, 17, 16, 15, 14, 13, 12, 11, 10, 9,
             8, 7, 6, 5, 4, 3, 2, 1, 0 ]
